//#include <cstdarg>
namespace Eloquent {
    namespace ML {
        namespace Port {
            class RandomForest {
                public:
                    /**
                    * Predict class for features vector
                    */
                    int predict(float *x) {
                        uint8_t votes[2] = { 0 };
                        // tree #1
                        if (x[20] <= -96.53499984741211) {
                            if (x[31] <= -9.5600004196167) {
                                if (x[22] <= -77.65500259399414) {
                                    if (x[29] <= -13.954999923706055) {
                                        votes[0] += 1;
                                    }

                                    else {
                                        votes[1] += 1;
                                    }
                                }

                                else {
                                    votes[1] += 1;
                                }
                            }

                            else {
                                if (x[30] <= -10.684999942779541) {
                                    if (x[12] <= -106.68000030517578) {
                                        votes[0] += 1;
                                    }

                                    else {
                                        if (x[18] <= -112.59000015258789) {
                                            votes[0] += 1;
                                        }

                                        else {
                                            if (x[3] <= -19.09000015258789) {
                                                if (x[18] <= -111.6500015258789) {
                                                    votes[0] += 1;
                                                }

                                                else {
                                                    votes[1] += 1;
                                                }
                                            }

                                            else {
                                                votes[1] += 1;
                                            }
                                        }
                                    }
                                }

                                else {
                                    if (x[22] <= -78.96500015258789) {
                                        votes[1] += 1;
                                    }

                                    else {
                                        if (x[14] <= -116.97999954223633) {
                                            if (x[13] <= -111.6500015258789) {
                                                votes[0] += 1;
                                            }

                                            else {
                                                votes[1] += 1;
                                            }
                                        }

                                        else {
                                            votes[0] += 1;
                                        }
                                    }
                                }
                            }
                        }

                        else {
                            if (x[17] <= -110.13000106811523) {
                                votes[1] += 1;
                            }

                            else {
                                votes[0] += 1;
                            }
                        }

                        // tree #2
                        if (x[26] <= -36.19500160217285) {
                            votes[0] += 1;
                        }

                        else {
                            if (x[1] <= -10.505000114440918) {
                                if (x[27] <= -26.65999984741211) {
                                    votes[1] += 1;
                                }

                                else {
                                    if (x[27] <= -26.210000038146973) {
                                        if (x[24] <= -55.26499938964844) {
                                            if (x[29] <= -14.014999866485596) {
                                                votes[1] += 1;
                                            }

                                            else {
                                                votes[0] += 1;
                                            }
                                        }

                                        else {
                                            if (x[20] <= -92.0150032043457) {
                                                if (x[0] <= -9.0) {
                                                    votes[1] += 1;
                                                }

                                                else {
                                                    votes[0] += 1;
                                                }
                                            }

                                            else {
                                                votes[0] += 1;
                                            }
                                        }
                                    }

                                    else {
                                        if (x[26] <= -35.154998779296875) {
                                            votes[1] += 1;
                                        }

                                        else {
                                            if (x[17] <= -115.02000045776367) {
                                                votes[1] += 1;
                                            }

                                            else {
                                                votes[0] += 1;
                                            }
                                        }
                                    }
                                }
                            }

                            else {
                                if (x[28] <= -18.925000190734863) {
                                    votes[0] += 1;
                                }

                                else {
                                    votes[1] += 1;
                                }
                            }
                        }

                        // tree #3
                        if (x[30] <= -10.684999942779541) {
                            if (x[29] <= -14.12999963760376) {
                                votes[0] += 1;
                            }

                            else {
                                votes[1] += 1;
                            }
                        }

                        else {
                            if (x[14] <= -116.0) {
                                if (x[12] <= -106.68000030517578) {
                                    votes[1] += 1;
                                }

                                else {
                                    votes[0] += 1;
                                }
                            }

                            else {
                                if (x[13] <= -107.88000106811523) {
                                    if (x[18] <= -111.6500015258789) {
                                        if (x[15] <= -116.22500228881836) {
                                            votes[1] += 1;
                                        }

                                        else {
                                            votes[0] += 1;
                                        }
                                    }

                                    else {
                                        if (x[5] <= -35.44999885559082) {
                                            if (x[10] <= -86.51000213623047) {
                                                votes[1] += 1;
                                            }

                                            else {
                                                votes[0] += 1;
                                            }
                                        }

                                        else {
                                            if (x[15] <= -117.22000122070312) {
                                                votes[0] += 1;
                                            }

                                            else {
                                                if (x[9] <= -74.05000305175781) {
                                                    votes[0] += 1;
                                                }

                                                else {
                                                    votes[1] += 1;
                                                }
                                            }
                                        }
                                    }
                                }

                                else {
                                    votes[0] += 1;
                                }
                            }
                        }

                        // tree #4
                        if (x[1] <= -10.414999961853027) {
                            if (x[30] <= -10.505000114440918) {
                                if (x[20] <= -96.53499984741211) {
                                    if (x[31] <= -9.399999618530273) {
                                        if (x[19] <= -104.46500015258789) {
                                            votes[0] += 1;
                                        }

                                        else {
                                            if (x[2] <= -14.309999942779541) {
                                                votes[0] += 1;
                                            }

                                            else {
                                                votes[1] += 1;
                                            }
                                        }
                                    }

                                    else {
                                        votes[1] += 1;
                                    }
                                }

                                else {
                                    if (x[0] <= -9.440000057220459) {
                                        votes[0] += 1;
                                    }

                                    else {
                                        if (x[0] <= -9.15999984741211) {
                                            votes[1] += 1;
                                        }

                                        else {
                                            votes[0] += 1;
                                        }
                                    }
                                }
                            }

                            else {
                                votes[1] += 1;
                            }
                        }

                        else {
                            votes[0] += 1;
                        }

                        // tree #5
                        if (x[12] <= -104.46500015258789) {
                            if (x[4] <= -25.989999771118164) {
                                if (x[27] <= -26.210000038146973) {
                                    if (x[15] <= -119.22000122070312) {
                                        votes[1] += 1;
                                    }

                                    else {
                                        if (x[26] <= -34.85999870300293) {
                                            votes[0] += 1;
                                        }

                                        else {
                                            if (x[9] <= -79.29499816894531) {
                                                votes[0] += 1;
                                            }

                                            else {
                                                if (x[12] <= -105.35000228881836) {
                                                    votes[1] += 1;
                                                }

                                                else {
                                                    votes[0] += 1;
                                                }
                                            }
                                        }
                                    }
                                }

                                else {
                                    if (x[3] <= -19.09000015258789) {
                                        if (x[3] <= -19.574999809265137) {
                                            votes[1] += 1;
                                        }

                                        else {
                                            if (x[13] <= -110.2400016784668) {
                                                votes[0] += 1;
                                            }

                                            else {
                                                votes[1] += 1;
                                            }
                                        }
                                    }

                                    else {
                                        votes[1] += 1;
                                    }
                                }
                            }

                            else {
                                if (x[16] <= -119.71500015258789) {
                                    votes[0] += 1;
                                }

                                else {
                                    votes[1] += 1;
                                }
                            }
                        }

                        else {
                            if (x[12] <= -80.01499938964844) {
                                votes[1] += 1;
                            }

                            else {
                                votes[0] += 1;
                            }
                        }

                        // tree #6
                        if (x[1] <= -10.505000114440918) {
                            if (x[13] <= -111.6500015258789) {
                                if (x[27] <= -26.65999984741211) {
                                    votes[1] += 1;
                                }

                                else {
                                    if (x[21] <= -87.25) {
                                        if (x[3] <= -19.09000015258789) {
                                            votes[0] += 1;
                                        }

                                        else {
                                            votes[1] += 1;
                                        }
                                    }

                                    else {
                                        if (x[31] <= -9.480000019073486) {
                                            votes[1] += 1;
                                        }

                                        else {
                                            if (x[6] <= -45.25) {
                                                votes[0] += 1;
                                            }

                                            else {
                                                votes[1] += 1;
                                            }
                                        }
                                    }
                                }
                            }

                            else {
                                if (x[3] <= -19.40999984741211) {
                                    if (x[31] <= -9.519999980926514) {
                                        votes[1] += 1;
                                    }

                                    else {
                                        votes[0] += 1;
                                    }
                                }

                                else {
                                    if (x[6] <= -45.44000053405762) {
                                        if (x[10] <= -87.99500274658203) {
                                            votes[0] += 1;
                                        }

                                        else {
                                            votes[1] += 1;
                                        }
                                    }

                                    else {
                                        votes[1] += 1;
                                    }
                                }
                            }
                        }

                        else {
                            if (x[4] <= -26.65999984741211) {
                                votes[1] += 1;
                            }

                            else {
                                votes[0] += 1;
                            }
                        }

                        // tree #7
                        if (x[31] <= -9.5600004196167) {
                            if (x[28] <= -16.244999885559082) {
                                votes[1] += 1;
                            }

                            else {
                                votes[0] += 1;
                            }
                        }

                        else {
                            if (x[0] <= -9.15999984741211) {
                                if (x[24] <= -55.26499938964844) {
                                    if (x[12] <= -104.02000045776367) {
                                        if (x[17] <= -117.46999740600586) {
                                            votes[1] += 1;
                                        }

                                        else {
                                            if (x[3] <= -18.600000381469727) {
                                                votes[0] += 1;
                                            }

                                            else {
                                                votes[1] += 1;
                                            }
                                        }
                                    }

                                    else {
                                        votes[1] += 1;
                                    }
                                }

                                else {
                                    votes[1] += 1;
                                }
                            }

                            else {
                                if (x[4] <= -27.104999542236328) {
                                    votes[1] += 1;
                                }

                                else {
                                    if (x[15] <= -119.22000122070312) {
                                        if (x[18] <= -111.18000030517578) {
                                            votes[1] += 1;
                                        }

                                        else {
                                            votes[0] += 1;
                                        }
                                    }

                                    else {
                                        if (x[5] <= -33.52499961853027) {
                                            if (x[3] <= -18.600000381469727) {
                                                votes[0] += 1;
                                            }

                                            else {
                                                if (x[19] <= -105.79499816894531) {
                                                    votes[0] += 1;
                                                }

                                                else {
                                                    if (x[5] <= -34.55999946594238) {
                                                        votes[0] += 1;
                                                    }

                                                    else {
                                                        votes[1] += 1;
                                                    }
                                                }
                                            }
                                        }

                                        else {
                                            votes[1] += 1;
                                        }
                                    }
                                }
                            }
                        }

                        // tree #8
                        if (x[7] <= -57.14500045776367) {
                            votes[0] += 1;
                        }

                        else {
                            if (x[0] <= -9.0) {
                                if (x[14] <= -116.97999954223633) {
                                    votes[1] += 1;
                                }

                                else {
                                    if (x[1] <= -10.414999961853027) {
                                        if (x[27] <= -26.210000038146973) {
                                            if (x[29] <= -14.014999866485596) {
                                                if (x[30] <= -10.325000286102295) {
                                                    votes[1] += 1;
                                                }

                                                else {
                                                    votes[0] += 1;
                                                }
                                            }

                                            else {
                                                if (x[11] <= -96.53499984741211) {
                                                    votes[0] += 1;
                                                }

                                                else {
                                                    votes[1] += 1;
                                                }
                                            }
                                        }

                                        else {
                                            if (x[11] <= -98.17999649047852) {
                                                votes[0] += 1;
                                            }

                                            else {
                                                if (x[6] <= -45.44000053405762) {
                                                    if (x[4] <= -26.214999198913574) {
                                                        votes[1] += 1;
                                                    }

                                                    else {
                                                        votes[0] += 1;
                                                    }
                                                }

                                                else {
                                                    votes[1] += 1;
                                                }
                                            }
                                        }
                                    }

                                    else {
                                        votes[0] += 1;
                                    }
                                }
                            }

                            else {
                                if (x[27] <= -25.875) {
                                    if (x[20] <= -96.125) {
                                        votes[0] += 1;
                                    }

                                    else {
                                        votes[1] += 1;
                                    }
                                }

                                else {
                                    votes[1] += 1;
                                }
                            }
                        }

                        // tree #9
                        if (x[19] <= -104.46500015258789) {
                            if (x[2] <= -14.12999963760376) {
                                if (x[17] <= -110.6150016784668) {
                                    votes[1] += 1;
                                }

                                else {
                                    votes[0] += 1;
                                }
                            }

                            else {
                                if (x[30] <= -10.414999961853027) {
                                    if (x[29] <= -14.014999866485596) {
                                        if (x[7] <= -55.03000068664551) {
                                            votes[1] += 1;
                                        }

                                        else {
                                            votes[0] += 1;
                                        }
                                    }

                                    else {
                                        if (x[14] <= -113.54999923706055) {
                                            if (x[31] <= -9.5600004196167) {
                                                votes[1] += 1;
                                            }

                                            else {
                                                votes[0] += 1;
                                            }
                                        }

                                        else {
                                            votes[1] += 1;
                                        }
                                    }
                                }

                                else {
                                    if (x[18] <= -111.6500015258789) {
                                        votes[1] += 1;
                                    }

                                    else {
                                        votes[0] += 1;
                                    }
                                }
                            }
                        }

                        else {
                            if (x[22] <= -78.96500015258789) {
                                if (x[0] <= -9.079999923706055) {
                                    votes[1] += 1;
                                }

                                else {
                                    votes[0] += 1;
                                }
                            }

                            else {
                                if (x[12] <= -106.68000030517578) {
                                    if (x[6] <= -45.25) {
                                        votes[0] += 1;
                                    }

                                    else {
                                        votes[1] += 1;
                                    }
                                }

                                else {
                                    votes[1] += 1;
                                }
                            }
                        }

                        // tree #10
                        if (x[0] <= -9.079999923706055) {
                            if (x[1] <= -10.684999942779541) {
                                if (x[21] <= -87.99500274658203) {
                                    votes[1] += 1;
                                }

                                else {
                                    if (x[16] <= -118.22000122070312) {
                                        if (x[25] <= -45.25) {
                                            votes[1] += 1;
                                        }

                                        else {
                                            votes[0] += 1;
                                        }
                                    }

                                    else {
                                        votes[1] += 1;
                                    }
                                }
                            }

                            else {
                                if (x[24] <= -55.26499938964844) {
                                    if (x[20] <= -98.17999649047852) {
                                        votes[1] += 1;
                                    }

                                    else {
                                        if (x[16] <= -117.22000122070312) {
                                            if (x[12] <= -102.68499755859375) {
                                                votes[0] += 1;
                                            }

                                            else {
                                                votes[1] += 1;
                                            }
                                        }

                                        else {
                                            if (x[7] <= -54.32500076293945) {
                                                votes[0] += 1;
                                            }

                                            else {
                                                votes[1] += 1;
                                            }
                                        }
                                    }
                                }

                                else {
                                    votes[1] += 1;
                                }
                            }
                        }

                        else {
                            if (x[27] <= -25.989999771118164) {
                                if (x[19] <= -88.9000015258789) {
                                    votes[0] += 1;
                                }

                                else {
                                    votes[1] += 1;
                                }
                            }

                            else {
                                votes[1] += 1;
                            }
                        }

                        // tree #11
                        if (x[18] <= -109.77000045776367) {
                            if (x[18] <= -111.6500015258789) {
                                if (x[13] <= -107.88000106811523) {
                                    if (x[13] <= -110.70999908447266) {
                                        if (x[7] <= -54.32500076293945) {
                                            if (x[30] <= -10.595000267028809) {
                                                if (x[13] <= -111.6500015258789) {
                                                    votes[0] += 1;
                                                }

                                                else {
                                                    votes[1] += 1;
                                                }
                                            }

                                            else {
                                                if (x[0] <= -9.0) {
                                                    votes[1] += 1;
                                                }

                                                else {
                                                    votes[0] += 1;
                                                }
                                            }
                                        }

                                        else {
                                            votes[0] += 1;
                                        }
                                    }

                                    else {
                                        votes[1] += 1;
                                    }
                                }

                                else {
                                    votes[0] += 1;
                                }
                            }

                            else {
                                if (x[11] <= -98.17999649047852) {
                                    if (x[20] <= -97.7699966430664) {
                                        votes[1] += 1;
                                    }

                                    else {
                                        votes[0] += 1;
                                    }
                                }

                                else {
                                    if (x[5] <= -35.75) {
                                        votes[1] += 1;
                                    }

                                    else {
                                        votes[0] += 1;
                                    }
                                }
                            }
                        }

                        else {
                            votes[1] += 1;
                        }

                        // tree #12
                        if (x[27] <= -25.989999771118164) {
                            if (x[15] <= -117.22000122070312) {
                                if (x[12] <= -100.90499877929688) {
                                    if (x[22] <= -78.96500015258789) {
                                        votes[0] += 1;
                                    }

                                    else {
                                        if (x[1] <= -10.595000267028809) {
                                            if (x[9] <= -75.68499755859375) {
                                                if (x[22] <= -77.65500259399414) {
                                                    if (x[15] <= -118.22000122070312) {
                                                        if (x[3] <= -18.600000381469727) {
                                                            votes[0] += 1;
                                                        }

                                                        else {
                                                            votes[1] += 1;
                                                        }
                                                    }

                                                    else {
                                                        votes[1] += 1;
                                                    }
                                                }

                                                else {
                                                    votes[1] += 1;
                                                }
                                            }

                                            else {
                                                votes[0] += 1;
                                            }
                                        }

                                        else {
                                            if (x[24] <= -55.26499938964844) {
                                                if (x[8] <= -65.90499877929688) {
                                                    votes[0] += 1;
                                                }

                                                else {
                                                    votes[1] += 1;
                                                }
                                            }

                                            else {
                                                votes[1] += 1;
                                            }
                                        }
                                    }
                                }

                                else {
                                    votes[0] += 1;
                                }
                            }

                            else {
                                if (x[4] <= -26.880000114440918) {
                                    if (x[25] <= -45.05999946594238) {
                                        votes[1] += 1;
                                    }

                                    else {
                                        votes[0] += 1;
                                    }
                                }

                                else {
                                    if (x[11] <= -59.97500038146973) {
                                        if (x[12] <= -103.57499694824219) {
                                            votes[0] += 1;
                                        }

                                        else {
                                            if (x[16] <= -120.71500015258789) {
                                                votes[0] += 1;
                                            }

                                            else {
                                                votes[1] += 1;
                                            }
                                        }
                                    }

                                    else {
                                        votes[1] += 1;
                                    }
                                }
                            }
                        }

                        else {
                            votes[1] += 1;
                        }

                        // tree #13
                        if (x[31] <= -9.5600004196167) {
                            votes[1] += 1;
                        }

                        else {
                            if (x[25] <= -45.44000053405762) {
                                if (x[23] <= -64.78000259399414) {
                                    votes[1] += 1;
                                }

                                else {
                                    if (x[22] <= -77.98500061035156) {
                                        votes[1] += 1;
                                    }

                                    else {
                                        votes[0] += 1;
                                    }
                                }
                            }

                            else {
                                if (x[11] <= -99.0) {
                                    votes[1] += 1;
                                }

                                else {
                                    if (x[3] <= -19.40999984741211) {
                                        if (x[9] <= -77.0) {
                                            votes[0] += 1;
                                        }

                                        else {
                                            votes[1] += 1;
                                        }
                                    }

                                    else {
                                        if (x[12] <= -104.02000045776367) {
                                            if (x[17] <= -116.97999954223633) {
                                                if (x[19] <= -104.46500015258789) {
                                                    votes[1] += 1;
                                                }

                                                else {
                                                    votes[0] += 1;
                                                }
                                            }

                                            else {
                                                votes[0] += 1;
                                            }
                                        }

                                        else {
                                            if (x[8] <= -66.75) {
                                                votes[0] += 1;
                                            }

                                            else {
                                                votes[1] += 1;
                                            }
                                        }
                                    }
                                }
                            }
                        }

                        // tree #14
                        if (x[26] <= -34.85999870300293) {
                            if (x[0] <= -9.079999923706055) {
                                if (x[8] <= -65.625) {
                                    if (x[30] <= -10.505000114440918) {
                                        if (x[10] <= -86.88000106811523) {
                                            if (x[2] <= -13.900000095367432) {
                                                votes[0] += 1;
                                            }

                                            else {
                                                if (x[21] <= -85.0250015258789) {
                                                    if (x[12] <= -105.79500198364258) {
                                                        votes[1] += 1;
                                                    }

                                                    else {
                                                        votes[0] += 1;
                                                    }
                                                }

                                                else {
                                                    votes[1] += 1;
                                                }
                                            }
                                        }

                                        else {
                                            votes[1] += 1;
                                        }
                                    }

                                    else {
                                        votes[1] += 1;
                                    }
                                }

                                else {
                                    votes[1] += 1;
                                }
                            }

                            else {
                                if (x[17] <= -116.97999954223633) {
                                    if (x[17] <= -117.95999908447266) {
                                        votes[0] += 1;
                                    }

                                    else {
                                        votes[1] += 1;
                                    }
                                }

                                else {
                                    votes[0] += 1;
                                }
                            }
                        }

                        else {
                            if (x[17] <= -117.95999908447266) {
                                if (x[19] <= -105.3499984741211) {
                                    votes[1] += 1;
                                }

                                else {
                                    votes[0] += 1;
                                }
                            }

                            else {
                                if (x[25] <= -45.05999946594238) {
                                    votes[1] += 1;
                                }

                                else {
                                    if (x[25] <= -44.489999771118164) {
                                        if (x[10] <= -79.82500076293945) {
                                            votes[0] += 1;
                                        }

                                        else {
                                            votes[1] += 1;
                                        }
                                    }

                                    else {
                                        votes[1] += 1;
                                    }
                                }
                            }
                        }

                        // return argmax of votes
                        uint8_t classIdx = 0;
                        float maxVotes = votes[0];

                        for (uint8_t i = 1; i < 2; i++) {
                            if (votes[i] > maxVotes) {
                                classIdx = i;
                                maxVotes = votes[i];
                            }
                        }

                        return classIdx;
                    }

                    /**
                    * Predict readable class name
                    */
                    const char* predictLabel(float *x) {
                        return idxToLabel(predict(x));
                    }

                    /**
                    * Convert class idx to readable name
                    */
                    const char* idxToLabel(uint8_t classIdx) {
                        switch (classIdx) {
                            case 0:
                            return "Not Allowed";
                            case 1:
                            return "Allowed";
                            default:
                            return "Houston we have a problem";
                        }
                    }

                protected:
                };
            }
        }
    }
